<?xml version="1.0"?>
<opencv_storage>
<cascade>
  <stageType>BOOST</stageType>
  <featureType>HAAR</featureType>
  <height>24</height>
  <width>24</width>
  <stageParams>
    <boostType>GAB</boostType>
    <minHitRate>9.9500000476837158e-01</minHitRate>
    <maxFalseAlarm>5.0000000000000000e-01</maxFalseAlarm>
    <weightTrimRate>9.4999998807907104e-01</weightTrimRate>
    <maxDepth>1</maxDepth>
    <maxWeakCount>100</maxWeakCount></stageParams>
  <featureParams>
    <maxCatCount>0</maxCatCount>
    <featSize>1</featSize>
    <mode>BASIC</mode></featureParams>
  <stageNum>14</stageNum>
  <stages>
    <!-- stage 0 -->
    <_>
      <maxWeakCount>2</maxWeakCount>
      <stageThreshold>-1.4116951823234558e-01</stageThreshold>
      <weakClassifiers>
        <_>
          <internalNodes>
            0 -1 6 -1.1629188433289528e-02</internalNodes>
          <leafValues>
            8.1818181276321411e-01 -9.1596639156341553e-01</leafValues></_>
        <_>
          <internalNodes>
            0 -1 23 -2.2453244775533676e-02</internalNodes>
          <leafValues>
            7.7479684352874756e-01 -9.3320220708847046e-01</leafValues></_></weakClassifiers></_>
    <!-- stage 1 -->
    <_>
      <maxWeakCount>2</maxWeakCount>
      <stageThreshold>-1.0651690512895584e-01</stageThreshold>
      <weakClassifiers>
        <_>
          <internalNodes>
            0 -1 8 -7.9982802271842957e-02</internalNodes>
          <leafValues>
            8.5714286565780640e-01 -9.0082645416259766e-01</leafValues></_>
        <_>
          <internalNodes>
            0 -1 26 3.4679956734180450e-02</internalNodes>
          <leafValues>
            -8.8896346092224121e-01 7.9430955648422241e-01</leafValues></_></weakClassifiers></_>
    <!-- stage 2 -->
    <_>
      <maxWeakCount>2</maxWeakCount>
      <stageThreshold>-5.0118476152420044e-02</stageThreshold>
      <weakClassifiers>
        <_>
          <internalNodes>
            0 -1 0 -7.2812758386135101e-02</internalNodes>
          <leafValues>
            6.4444446563720703e-01 -8.6440676450729370e-01</leafValues></_>
        <_>
          <internalNodes>
            0 -1 15 1.0872171819210052e-01</internalNodes>
          <leafValues>
            -6.9456291198730469e-01 9.6970075368881226e-01</leafValues></_></weakClassifiers></_>
    <!-- stage 3 -->
    <_>
      <maxWeakCount>2</maxWeakCount>
      <stageThreshold>-4.3165758252143860e-01</stageThreshold>
      <weakClassifiers>
        <_>
          <internalNodes>
            0 -1 4 1.4787989854812622e-01</internalNodes>
          <leafValues>
            -7.9844963550567627e-01 8.8235294818878174e-01</leafValues></_>
        <_>
          <internalNodes>
            0 -1 25 7.6857298612594604e-02</internalNodes>
          <leafValues>
            -1. 3.6679205298423767e-01</leafValues></_></weakClassifiers></_>
    <!-- stage 4 -->
    <_>
      <maxWeakCount>2</maxWeakCount>
      <stageThreshold>-4.3624928593635559e-01</stageThreshold>
      <weakClassifiers>
        <_>
          <internalNodes>
            0 -1 17 6.3988022506237030e-02</internalNodes>
          <leafValues>
            -8.0000001192092896e-01 5.3488373756408691e-01</leafValues></_>
        <_>
          <internalNodes>
            0 -1 27 -1.7644490581005812e-03</internalNodes>
          <leafValues>
            -1. 3.6375069618225098e-01</leafValues></_></weakClassifiers></_>
    <!-- stage 5 -->
    <_>
      <maxWeakCount>2</maxWeakCount>
      <stageThreshold>-4.0163969993591309e-01</stageThreshold>
      <weakClassifiers>
        <_>
          <internalNodes>
            0 -1 28 1.3242688728496432e-03</internalNodes>
          <leafValues>
            3.2307693362236023e-01 -9.5918369293212891e-01</leafValues></_>
        <_>
          <internalNodes>
            0 -1 24 4.4635478407144547e-02</internalNodes>
          <leafValues>
            -7.2471666336059570e-01 7.5375103950500488e-01</leafValues></_></weakClassifiers></_>
    <!-- stage 6 -->
    <_>
      <maxWeakCount>2</maxWeakCount>
      <stageThreshold>-6.5266931056976318e-01</stageThreshold>
      <weakClassifiers>
        <_>
          <internalNodes>
            0 -1 14 -1.5547244402114302e-04</internalNodes>
          <leafValues>
            2.5806450843811035e-01 -8.8118809461593628e-01</leafValues></_>
        <_>
          <internalNodes>
            0 -1 3 1.7344516236335039e-03</internalNodes>
          <leafValues>
            2.2851881384849548e-01 -1.</leafValues></_></weakClassifiers></_>
    <!-- stage 7 -->
    <_>
      <maxWeakCount>2</maxWeakCount>
      <stageThreshold>-5.2885872125625610e-01</stageThreshold>
      <weakClassifiers>
        <_>
          <internalNodes>
            0 -1 7 -1.7954340364667587e-05</internalNodes>
          <leafValues>
            3.1147539615631104e-01 -9.0196079015731812e-01</leafValues></_>
        <_>
          <internalNodes>
            0 -1 2 3.2154973596334457e-03</internalNodes>
          <leafValues>
            3.7310206890106201e-01 -1.</leafValues></_></weakClassifiers></_>
    <!-- stage 8 -->
    <_>
      <maxWeakCount>2</maxWeakCount>
      <stageThreshold>-3.7787288427352905e-01</stageThreshold>
      <weakClassifiers>
        <_>
          <internalNodes>
            0 -1 1 -1.2919490691274405e-03</internalNodes>
          <leafValues>
            -8.8990825414657593e-01 4.4444444775581360e-01</leafValues></_>
        <_>
          <internalNodes>
            0 -1 14 -1.6302670119330287e-03</internalNodes>
          <leafValues>
            5.1203536987304688e-01 -8.0937415361404419e-01</leafValues></_></weakClassifiers></_>
    <!-- stage 9 -->
    <_>
      <maxWeakCount>3</maxWeakCount>
      <stageThreshold>-1.1586132049560547e+00</stageThreshold>
      <weakClassifiers>
        <_>
          <internalNodes>
            0 -1 16 1.4080185792408884e-05</internalNodes>
          <leafValues>
            -7.9661017656326294e-01 4.6666666865348816e-01</leafValues></_>
        <_>
          <internalNodes>
            0 -1 19 -2.1247680706437677e-05</internalNodes>
          <leafValues>
            7.3391950130462646e-01 -7.4021679162979126e-01</leafValues></_>
        <_>
          <internalNodes>
            0 -1 18 2.5695348085719161e-05</internalNodes>
          <leafValues>
            -8.8506311178207397e-01 5.6400489807128906e-01</leafValues></_></weakClassifiers></_>
    <!-- stage 10 -->
    <_>
      <maxWeakCount>2</maxWeakCount>
      <stageThreshold>-2.4199873208999634e-01</stageThreshold>
      <weakClassifiers>
        <_>
          <internalNodes>
            0 -1 10 -4.0719071403145790e-03</internalNodes>
          <leafValues>
            5.0000000000000000e-01 -7.5609755516052246e-01</leafValues></_>
        <_>
          <internalNodes>
            0 -1 21 6.2553947791457176e-03</internalNodes>
          <leafValues>
            -7.4199873208999634e-01 6.1720824241638184e-01</leafValues></_></weakClassifiers></_>
    <!-- stage 11 -->
    <_>
      <maxWeakCount>2</maxWeakCount>
      <stageThreshold>-2.4536694586277008e-01</stageThreshold>
      <weakClassifiers>
        <_>
          <internalNodes>
            0 -1 20 9.2028100043535233e-03</internalNodes>
          <leafValues>
            -8.6440676450729370e-01 6.4444446563720703e-01</leafValues></_>
        <_>
          <internalNodes>
            0 -1 5 4.6475837007164955e-03</internalNodes>
          <leafValues>
            -8.2213681936264038e-01 6.1903983354568481e-01</leafValues></_></weakClassifiers></_>
    <!-- stage 12 -->
    <_>
      <maxWeakCount>3</maxWeakCount>
      <stageThreshold>-6.0409498214721680e-01</stageThreshold>
      <weakClassifiers>
        <_>
          <internalNodes>
            0 -1 12 -4.0961135178804398e-02</internalNodes>
          <leafValues>
            8.0000001192092896e-01 -7.2932332754135132e-01</leafValues></_>
        <_>
          <internalNodes>
            0 -1 9 7.1312829852104187e-02</internalNodes>
          <leafValues>
            -5.8478170633316040e-01 1.</leafValues></_>
        <_>
          <internalNodes>
            0 -1 13 -2.1647037938237190e-03</internalNodes>
          <leafValues>
            7.1001005172729492e-01 -6.0148030519485474e-01</leafValues></_></weakClassifiers></_>
    <!-- stage 13 -->
    <_>
      <maxWeakCount>2</maxWeakCount>
      <stageThreshold>-2.3007022216916084e-02</stageThreshold>
      <weakClassifiers>
        <_>
          <internalNodes>
            0 -1 11 -2.9310464859008789e-01</internalNodes>
          <leafValues>
            8.2608693838119507e-01 -6.5714287757873535e-01</leafValues></_>
        <_>
          <internalNodes>
            0 -1 22 9.0751312673091888e-02</internalNodes>
          <leafValues>
            -7.1055603027343750e-01 6.3413584232330322e-01</leafValues></_></weakClassifiers></_></stages>
  <features>
    <_>
      <rects>
        <_>
          0 0 8 21 -1.</_>
        <_>
          4 0 4 21 2.</_></rects>
      <tilted>0</tilted></_>
    <_>
      <rects>
        <_>
          0 3 3 6 -1.</_>
        <_>
          0 6 3 3 2.</_></rects>
      <tilted>0</tilted></_>
    <_>
      <rects>
        <_>
          0 3 3 9 -1.</_>
        <_>
          0 6 3 3 3.</_></rects>
      <tilted>0</tilted></_>
    <_>
      <rects>
        <_>
          0 6 2 6 -1.</_>
        <_>
          0 9 2 3 2.</_></rects>
      <tilted>0</tilted></_>
    <_>
      <rects>
        <_>
          0 6 24 18 -1.</_>
        <_>
          0 15 24 9 2.</_></rects>
      <tilted>0</tilted></_>
    <_>
      <rects>
        <_>
          1 0 5 12 -1.</_>
        <_>
          1 4 5 4 3.</_></rects>
      <tilted>0</tilted></_>
    <_>
      <rects>
        <_>
          1 9 6 5 -1.</_>
        <_>
          4 9 3 5 2.</_></rects>
      <tilted>0</tilted></_>
    <_>
      <rects>
        <_>
          2 10 2 1 -1.</_>
        <_>
          3 10 1 1 2.</_></rects>
      <tilted>0</tilted></_>
    <_>
      <rects>
        <_>
          3 0 21 9 -1.</_>
        <_>
          10 0 7 9 3.</_></rects>
      <tilted>0</tilted></_>
    <_>
      <rects>
        <_>
          3 1 14 6 -1.</_>
        <_>
          3 4 14 3 2.</_></rects>
      <tilted>0</tilted></_>
    <_>
      <rects>
        <_>
          3 10 3 4 -1.</_>
        <_>
          4 10 1 4 3.</_></rects>
      <tilted>0</tilted></_>
    <_>
      <rects>
        <_>
          6 2 12 21 -1.</_>
        <_>
          6 9 12 7 3.</_></rects>
      <tilted>0</tilted></_>
    <_>
      <rects>
        <_>
          7 1 14 6 -1.</_>
        <_>
          7 4 14 3 2.</_></rects>
      <tilted>0</tilted></_>
    <_>
      <rects>
        <_>
          7 7 2 6 -1.</_>
        <_>
          7 7 1 3 2.</_>
        <_>
          8 10 1 3 2.</_></rects>
      <tilted>0</tilted></_>
    <_>
      <rects>
        <_>
          7 11 2 2 -1.</_>
        <_>
          8 11 1 2 2.</_></rects>
      <tilted>0</tilted></_>
    <_>
      <rects>
        <_>
          8 1 10 21 -1.</_>
        <_>
          8 8 10 7 3.</_></rects>
      <tilted>0</tilted></_>
    <_>
      <rects>
        <_>
          8 6 2 1 -1.</_>
        <_>
          9 6 1 1 2.</_></rects>
      <tilted>0</tilted></_>
    <_>
      <rects>
        <_>
          8 16 15 8 -1.</_>
        <_>
          8 20 15 4 2.</_></rects>
      <tilted>0</tilted></_>
    <_>
      <rects>
        <_>
          9 11 2 2 -1.</_>
        <_>
          10 11 1 2 2.</_></rects>
      <tilted>0</tilted></_>
    <_>
      <rects>
        <_>
          9 18 1 2 -1.</_>
        <_>
          9 19 1 1 2.</_></rects>
      <tilted>0</tilted></_>
    <_>
      <rects>
        <_>
          9 19 8 4 -1.</_>
        <_>
          9 21 8 2 2.</_></rects>
      <tilted>0</tilted></_>
    <_>
      <rects>
        <_>
          11 7 3 11 -1.</_>
        <_>
          12 7 1 11 3.</_></rects>
      <tilted>0</tilted></_>
    <_>
      <rects>
        <_>
          12 0 4 24 -1.</_>
        <_>
          12 8 4 8 3.</_></rects>
      <tilted>0</tilted></_>
    <_>
      <rects>
        <_>
          12 9 12 10 -1.</_>
        <_>
          16 9 4 10 3.</_></rects>
      <tilted>0</tilted></_>
    <_>
      <rects>
        <_>
          12 15 10 8 -1.</_>
        <_>
          12 19 10 4 2.</_></rects>
      <tilted>0</tilted></_>
    <_>
      <rects>
        <_>
          14 0 10 24 -1.</_>
        <_>
          19 0 5 24 2.</_></rects>
      <tilted>0</tilted></_>
    <_>
      <rects>
        <_>
          14 16 10 7 -1.</_>
        <_>
          19 16 5 7 2.</_></rects>
      <tilted>0</tilted></_>
    <_>
      <rects>
        <_>
          21 1 3 6 -1.</_>
        <_>
          21 3 3 2 3.</_></rects>
      <tilted>0</tilted></_>
    <_>
      <rects>
        <_>
          22 1 2 6 -1.</_>
        <_>
          22 3 2 2 3.</_></rects>
      <tilted>0</tilted></_></features></cascade>
</opencv_storage>
